digraph Tree {
node [shape=box] ;
0 [label="pixel123 <= 0.037\nentropy = 3.319\nsamples = 1500\nvalue = [138, 162, 152, 141, 151, 157, 151, 149, 136, 163]"] ;
1 [label="pixel373 <= 0.025\nentropy = 2.22\nsamples = 575\nvalue = [6, 1, 2, 12, 1, 156, 3, 149, 84, 161]"] ;
0 -> 1 [labeldistance=2.5, labelangle=45, headlabel="True"] ;
2 [label="entropy = 1.778\nsamples = 326\nvalue = [1, 1, 1, 12, 0, 101, 1, 45, 4, 160]"] ;
1 -> 2 ;
3 [label="entropy = 1.799\nsamples = 249\nvalue = [5, 0, 1, 0, 1, 55, 2, 104, 80, 1]"] ;
1 -> 3 ;
4 [label="pixel594 <= 0.055\nentropy = 2.774\nsamples = 925\nvalue = [132, 161, 150, 129, 150, 1, 148, 0, 52, 2]"] ;
0 -> 4 [labeldistance=2.5, labelangle=-45, headlabel="False"] ;
5 [label="entropy = 2.148\nsamples = 482\nvalue = [126, 158, 3, 122, 15, 0, 54, 0, 4, 0]"] ;
4 -> 5 ;
6 [label="entropy = 2.155\nsamples = 443\nvalue = [6, 3, 147, 7, 135, 1, 94, 0, 48, 2]"] ;
4 -> 6 ;
}